svm_type c_svc
kernel_type rbf
gamma 0.000488
nr_class 2
total_sv 40
rho -0.40758
label 1 -1
nr_sv 24 16
SV
1.145366194395483 1:2.1056 2:-0.38335 3:-1.8151 4:3.1714 5:8.5112 6:5.6673 7:4.2816 8:2.0092 9:1.0163 10:1.1102 11:1.1102 12:1.1102 13:4.2816 14:-6.502 15:-2.4082 16:2.8327 17:-3.4878 18:-4.5214 
0.5919935613201964 1:-13.98 2:-10.536 3:-19.79 4:30.94 5:146.34 6:36.13 7:-3.33 8:41.04 9:3.16 10:-34.27 11:-34.27 12:-34.27 13:-34.27 14:-105.3 15:-12.93 16:-3.46 17:-20.5 18:-30.17 
0.5915011950641732 1:-18.839 2:22.074 3:-14.874 4:68.69 5:121.83 6:50.86 7:-8.27 8:71.65 9:15.44 10:-76.96 11:-76.96 12:-76.96 13:-76.96 14:-50.18 15:15.44 16:-8.92 17:-12.49 18:-10.92 
0.5044113084887099 1:3.7587 2:-5.6661 3:-3.3865 4:6.0184 5:17.669 6:10.236 7:6.9306 8:1.7531 9:2.3612 10:0.91224 11:0.91224 12:0.91224 13:6.9306 14:1.7531 15:-1.6245 16:0.95 17:1.5633 18:-1.251 
0.592534862117317 1:5.5926 2:2.1861 3:-2.2748 4:120.29 5:225.85 6:43.29 7:48.66 8:104.63 9:23.77 10:-71.63 11:-71.63 12:-71.63 13:20.23 14:65.06 15:2.1 16:-2.56 17:9.67 18:-6.24 
0.5553064115758869 1:24.119 2:-19.996 3:-14.343 4:46.5 5:81.17 6:59.08 7:55.37 8:14.04 9:15.36 10:8.87 11:8.87 12:8.87 13:35.88 14:-57.21 15:-41.78 16:9.52 17:13.52 18:-13.29 
0.5385011316279653 1:-14.023 2:16.92 3:-23.298 4:28.95 5:111.46 6:63.1 7:-0.61 8:87.73 9:6.22 10:-29.56 11:-29.56 12:-29.56 13:-26.44 14:80.51 15:-1.05 16:-8.5 17:22.72 18:-52.72 
0.6055674189328927 1:19.789 2:-9.3829 3:-3.5543 4:20.65 5:44.9 6:82.59 7:27.45 8:12.68 9:57.36 10:6.8 11:6.8 12:6.8 13:13.96 14:-8.35 15:57.36 16:7.51 17:11.7 18:-10.38 
0.5923315550416386 1:17.398 2:-6.5881 3:-7.4448 4:63.27 5:127.72 6:66.57 7:70.18 8:74.57 9:5.95 10:6.91 11:6.91 12:6.91 13:27.74 14:74.57 15:-0.42 16:10.97 17:11.64 18:-8.43 
1.237412851467862 1:-15.576 2:3.1145 3:-14.066 4:28.17 5:43.87 6:40.72 7:-0.97 8:26.42 9:5.99 10:-29.14 11:-29.14 12:-29.14 13:-29.14 14:17.43 15:-2.33 16:-14.71 17:-13.68 18:-3.71 
0.559046297050816 1:20.684 2:-15.575 3:-12.201 4:28.78 5:94.64 6:63.26 7:41.55 8:17.56 9:20.73 10:12.77 11:12.77 12:12.77 13:34.04 14:-75.79 15:20.73 16:16.19 17:17.49 18:2.31 
0.6351916781131421 1:-21.828 2:16.427 3:-30.017 4:118.04 5:156.79 6:62.24 7:9.33 8:95.43 9:5.01 10:-108.71 11:-108.71 12:-108.71 13:-62.51 14:88.17 15:5.01 16:9.33 17:-0.4 18:-44.73 
0.5938621863484738 1:17.854 2:-15.13 3:-11.641 4:129.74 5:136.66 6:95.94 7:52.95 8:69.11 9:51.17 10:-76.79 11:-76.79 12:-76.79 13:-76.79 14:50.27 15:51.17 16:11.68 17:9.13 18:-7.43 
2.963843990232934 1:-1.6817 2:1.8598 3:-0.80174 4:10.995 5:8.5541 6:6.8888 7:6.8051 8:7.4051 9:3.1194 10:-4.1898 11:-4.1898 12:-4.1898 13:-2.3765 14:2.3378 15:1.7143 16:-1.2643 17:-0.95408 18:-1.6847 
0.4544283646963089 1:-17.749 2:18.577 3:-11.159 4:51.26 5:87.8 6:64.1 7:-1.41 8:81.81 9:24.21 10:-52.67 11:-52.67 12:-52.67 13:-52.67 14:58.17 15:24.21 16:-6.34 17:-5.44 18:-9.04 
3 1:1.8327 2:-0.76394 3:-0.87748 4:8.9316 5:9.9684 6:7.3582 7:7.8041 8:2.0133 9:1.9878 10:-1.1276 11:-1.1276 12:-1.1276 13:2.4531 14:-5.0031 15:0.026531 16:0.40408 17:2.0133 18:-0.83265 
0.45439185359353 1:-14.491 2:12.086 3:-8.6777 4:44.46 5:109.01 6:59.69 7:-6.62 8:97.77 9:10.59 10:-51.08 11:-51.08 12:-51.08 13:-50.83 14:97.77 15:10.59 16:-11.28 17:-11.07 18:-5.3 
0.5909996760816949 1:-19.761 2:10.986 3:-24.93 4:49.47 5:182.51 6:61.55 7:-2.83 8:110.32 9:7.39 10:-52.3 11:-52.3 12:-52.3 13:-32.38 14:4.38 15:-6.89 16:-5.69 17:-6.89 18:-50.29 
0.4612386376244962 1:-19.51 2:8.0733 3:-31.728 4:33.49 5:73.83 6:41.13 7:-3.58 8:53.18 9:-5.67 10:-37.07 11:-37.07 12:-37.07 13:-34.29 14:53.18 15:-29.35 16:-13.5 17:-3.27 18:-37.41 
3 1:-1.6438 2:1.3706 3:-0.54915 4:10.015 5:9.9449 6:11.186 7:6.5235 8:5.6031 9:7.3582 10:-3.4918 11:-3.4918 12:-3.4918 13:6.5235 14:-4.3418 15:7.3582 16:-1.6357 17:-1.6847 18:-0.4398 
3 1:1.8699 2:-1.8337 3:-1.3391 4:9.7388 5:15.896 6:7.4388 7:5.0061 8:5.5286 9:3.4816 10:-4.7327 11:-4.7327 12:-4.7327 13:5.0061 14:5.5286 15:1.2765 16:2.9327 17:-4.7214 18:-2.9755 
0.563387593222492 1:-6.3471 2:-5.8564 3:-31.078 4:10.65 5:38.29 6:42.38 7:-2.58 8:22.93 9:-8.89 10:-13.23 11:-13.23 12:-13.23 13:-8.85 14:22.93 15:-51.27 16:-3.96 17:-13.66 18:-32.85 
3 1:-0.20783 2:2.2643 3:-2.1541 4:12.41 5:14.191 6:7.448 7:8.6684 8:7.902 9:0.43571 10:-3.7418 11:-3.7418 12:-3.7418 13:4.1663 14:1.8214 15:-3.051 16:-0.60714 17:0.62755 18:0.38265 
3 1:2.4621 2:-3.2224 3:-4.2991 4:4.702 5:15.47 6:5.7949 7:5.3959 8:1.5796 9:-1.2765 10:0.69388 11:0.69388 12:0.69388 13:5.3878 14:-13.891 15:-2.3827 16:1.2337 17:1.5796 18:-1.2765 
-0.6265153031046336 1:9.8071 2:-8.083 3:-7.7573 4:109.59 5:112.44 6:94.39 7:95.28 8:7.93 9:48.97 10:-14.31 11:-14.31 12:-14.31 13:86.83 14:-104.51 15:48.97 16:-1.53 17:5.05 18:-15.38 
-1.066511102924789 1:15.559 2:-11.291 3:-11.643 4:88.24 5:90.81 6:78.58 7:74.26 8:10.11 9:38.66 10:-13.98 11:-13.98 12:-13.98 13:74.26 14:-80.7 15:38.66 16:-0.15 17:6.91 18:-16.84 
-1.482164873236427 1:2.1446 2:-1.5347 3:-2.6558 4:15.036 5:9.0296 6:7.5469 7:14.495 8:0.52551 9:1.1449 10:-0.54082 11:-0.54082 12:-0.54082 13:14.495 14:-8.2071 15:-2.4684 16:-0.30816 17:0.51939 18:-0.28061 
-3 1:-3.3499 2:2.3707 3:-2.7539 4:16.249 5:11.618 6:8.2143 7:0.23265 8:10.876 9:1.3347 10:-16.016 11:-16.016 12:-16.016 13:-16.016 14:10.876 15:0.94388 16:-0.13061 17:-0.37449 18:-0.9551 
-2.069251989441797 1:4.6152 2:-2.5663 3:-2.34 4:17.562 5:17.547 6:21.394 7:16.014 8:1.5327 9:13.789 10:-1.548 11:-1.548 12:-1.548 13:8.4908 14:1.5327 15:7.8184 16:5.4541 17:-0.61327 18:-7.5153 
-1.478197140925163 1:-3.1667 2:2.9904 3:-2.8026 4:16.276 5:17.458 6:17.117 7:0.25918 8:16.014 9:5.6847 10:-16.016 11:-16.016 12:-16.016 13:-16.016 14:16.014 15:5.6847 16:-0.18673 17:-0.59796 18:-0.44184 
-0.4493057212104847 1:10.589 2:-6.7746 3:-11.864 4:109.68 5:111.52 6:78.09 7:94.28 8:8.75 9:31.48 10:-15.4 11:-15.4 12:-15.4 13:85.91 14:-102.77 15:31.48 16:-2.14 17:4.96 18:-20.19 
-3 1:-1.6131 2:1.2619 3:-0.75254 4:10.932 5:19.511 6:14.276 7:1.702 8:10.043 9:9.8765 10:-9.2296 11:-9.2296 12:-9.2296 13:-6.4143 14:-9.4684 15:-3.8643 16:1.6847 17:-0.76939 18:-0.005102 
-3 1:2.7257 2:-1.258 3:-2.4402 4:12.047 5:9.1276 6:6.1357 7:10.397 8:0.81122 9:0.52551 10:-1.65 11:-1.65 12:-1.65 13:9.7888 14:-8.3163 15:0.14184 16:4.0041 17:-0.52551 18:-5.6102 
-3 1:2.314 2:-1.5375 3:-1.7492 4:14.078 5:10.895 6:7.2194 7:13.435 8:1.3051 9:1.3959 10:-0.64286 11:-0.64286 12:-0.64286 13:13.435 14:-9.5898 15:0.17347 16:0.6449 17:0.30408 18:-1.5673 
-3 1:2.314 2:-1.5375 3:-1.7492 4:14.078 5:10.895 6:7.2194 7:13.435 8:1.3051 9:1.3959 10:-0.64286 11:-0.64286 12:-0.64286 13:13.435 14:-9.5898 15:0.17347 16:0.83061 17:0.18571 18:-1.8827 
-1.23426390607599 1:15.074 2:-10.168 3:-11.396 4:146.39 5:117.19 6:93.89 7:130.4 8:8.54 9:38.89 10:-15.99 11:-15.99 12:-15.99 13:115.43 14:-108.65 15:38.89 16:0.34 17:7.52 18:-20.57 
-3 1:3.5044 2:-1.4348 3:-3.4922 4:9.2469 5:7.1776 6:4.4439 7:8.9388 8:1.1469 9:-0.71327 10:-0.30816 11:-0.30816 12:-0.30816 13:8.9388 14:-6.0306 15:-0.71327 16:7.7357 17:-4.9969 18:-2.3378 
-1.184868295321051 1:-17.096 2:13.979 3:-12.3 4:148.14 5:124.48 6:102.42 7:15.73 8:117.68 9:45.06 10:-132.41 11:-132.41 12:-132.41 13:-125.95 14:117.68 15:45.06 16:4.31 17:-2.16 18:-15.46 
-0.705550514209114 1:-18.087 2:16.946 3:-17.012 4:126.58 5:133.4 6:86.1 7:15.61 8:121.53 9:24.85 10:-110.97 11:-110.97 12:-110.97 13:-110.97 14:121.53 15:24.85 16:4.02 17:-4.56 18:-24.19 
-0.9346879205465632 1:-14.844 2:13.713 3:-16.144 4:115.33 5:121.75 6:93.82 7:14.15 8:114.36 9:39.98 10:-101.18 11:-101.18 12:-101.18 13:-101.18 14:114.36 15:39.98 16:1.76 17:-4.36 18:-22.66 
