svm_type c_svc
kernel_type rbf
gamma 0.000488
nr_class 2
total_sv 43
rho 0.396602
label 1 2
nr_sv 17 26
SV
0.5799050305123662 1:10.589 2:-6.7746 3:-11.864 4:109.68 5:111.52 6:78.09 7:94.28 8:8.75 9:31.48 10:-15.4 11:-15.4 12:-15.4 13:85.91 14:-102.77 15:31.48 16:-2.14 17:4.96 18:-20.19 
1.243200923024509 1:15.074 2:-10.168 3:-11.396 4:146.39 5:117.19 6:93.89 7:130.4 8:8.54 9:38.89 10:-15.99 11:-15.99 12:-15.99 13:115.43 14:-108.65 15:38.89 16:0.34 17:7.52 18:-20.57 
0.3704638247281251 1:9.8071 2:-8.083 3:-7.7573 4:109.59 5:112.44 6:94.39 7:95.28 8:7.93 9:48.97 10:-14.31 11:-14.31 12:-14.31 13:86.83 14:-104.51 15:48.97 16:-1.53 17:5.05 18:-15.38 
5.986454601336892 1:-2.6648 2:1.9388 3:-2.8313 4:16.023 5:11.053 6:8.4102 7:0.43367 8:10.299 9:1.0102 10:-15.59 11:-15.59 12:-15.59 13:-15.449 14:10.299 15:1.0102 16:-0.089796 17:-0.10306 18:-1.4602 
7.694660061551216 1:2.314 2:-1.5375 3:-1.7492 4:14.078 5:10.895 6:7.2194 7:13.435 8:1.3051 9:1.3959 10:-0.64286 11:-0.64286 12:-0.64286 13:13.435 14:-9.5898 15:0.17347 16:0.6449 17:0.30408 18:-1.5673 
0.8567550250976452 1:-18.087 2:16.946 3:-17.012 4:126.58 5:133.4 6:86.1 7:15.61 8:121.53 9:24.85 10:-110.97 11:-110.97 12:-110.97 13:-110.97 14:121.53 15:24.85 16:4.02 17:-4.56 18:-24.19 
0.5331054369447726 1:-14.844 2:13.713 3:-16.144 4:115.33 5:121.75 6:93.82 7:14.15 8:114.36 9:39.98 10:-101.18 11:-101.18 12:-101.18 13:-101.18 14:114.36 15:39.98 16:1.76 17:-4.36 18:-22.66 
1.231002765391054 1:-9.9187 2:10.01 3:-7.7534 4:111.33 5:109.95 6:120.51 7:14.58 8:101.68 9:62.94 10:-96.75 11:-96.75 12:-96.75 13:-79.59 14:101.68 15:62.94 16:3.6 17:-5.15 18:-18.87 
1.167734793654385 1:-17.096 2:13.979 3:-12.3 4:148.14 5:124.48 6:102.42 7:15.73 8:117.68 9:45.06 10:-132.41 11:-132.41 12:-132.41 13:-125.95 14:117.68 15:45.06 16:4.31 17:-2.16 18:-15.46 
1.320536761889438 1:15.649 2:-12.366 3:-7.0146 4:92.43 5:133.41 6:126.91 7:81.21 8:17.53 9:76.75 10:-11.22 11:-11.22 12:-11.22 13:66.42 14:-115.88 15:76.75 16:-1.78 17:9.27 18:-13.6 
1.054823479751749 1:15.559 2:-11.291 3:-11.643 4:88.24 5:90.81 6:78.58 7:74.26 8:10.11 9:38.66 10:-13.98 11:-13.98 12:-13.98 13:74.26 14:-80.7 15:38.66 16:-0.15 17:6.91 18:-16.84 
0.7900324044809831 1:4.5793 2:-3.2775 3:-1.7256 4:17.492 5:17.437 6:23.995 7:16.014 8:1.4224 9:16.014 10:-1.4776 11:-1.4776 12:-1.4776 13:0.18163 14:-5.4469 15:2.2571 16:6.7735 17:-1.5776 18:-7.8214 
8 1:-1.1308 2:1.0204 3:-0.89893 4:12.747 5:7.7837 6:6.9357 7:1.5327 8:7.3327 9:2.1184 10:-11.214 11:-11.214 12:-11.214 13:-11.214 14:7.3327 15:2.1184 16:1.5184 17:-0.45102 18:-0.12041 
8 1:-1.6131 2:1.2619 3:-0.75254 4:10.932 5:19.511 6:14.276 7:1.702 8:10.043 9:9.8765 10:-9.2296 11:-9.2296 12:-9.2296 13:-6.4143 14:-9.4684 15:-3.8643 16:1.6847 17:-0.76939 18:-0.005102 
8 1:2.7257 2:-1.258 3:-2.4402 4:12.047 5:9.1276 6:6.1357 7:10.397 8:0.81122 9:0.52551 10:-1.65 11:-1.65 12:-1.65 13:9.7888 14:-8.3163 15:0.14184 16:4.0041 17:-0.52551 18:-5.6102 
2.116881939729794 1:4.6152 2:-2.5663 3:-2.34 4:17.562 5:17.547 6:21.394 7:16.014 8:1.5327 9:13.789 10:-1.548 11:-1.548 12:-1.548 13:8.4908 14:1.5327 15:7.8184 16:5.4541 17:-0.61327 18:-7.5153 
8 1:3.5044 2:-1.4348 3:-3.4922 4:9.2469 5:7.1776 6:4.4439 7:8.9388 8:1.1469 9:-0.71327 10:-0.30816 11:-0.30816 12:-0.30816 13:8.9388 14:-6.0306 15:-0.71327 16:7.7357 17:-4.9969 18:-2.3378 
-0.5159027098417479 1:30.759 2:0.62481 3:-3.3335 4:93.89 5:101.6 6:50.79 7:78.99 8:29.83 9:22.09 10:-14.9 11:-14.9 12:-14.9 13:78.99 14:20.06 15:11.97 16:7.49 17:-3.42 18:-21.59 
-0.5189062288358269 1:37.091 2:1.0067 3:-15.427 4:105.09 5:84.32 6:90.24 7:89.84 8:36.23 9:19.79 10:-15.25 11:-15.25 12:-15.25 13:82.19 14:36.23 15:-16.07 16:18.12 17:6.64 18:-33.41 
-0.6027724752050218 1:-34.513 2:10.437 3:-1.4781 4:113.89 5:45.54 6:109.58 7:-3.21 8:36.9 9:70.79 10:-117.1 11:-117.1 12:-117.1 13:-40.75 14:-5.38 15:24.42 16:-3.31 17:6.76 18:-9.61 
-0.6134144982077355 1:17.013 2:-2.821 3:2.9492 4:60.39 5:29.65 6:60.31 7:60.56 8:20.07 9:20.4 10:0.17 11:0.17 12:0.17 13:54.49 14:10.76 15:16.55 16:2.12 17:0.03 18:11.36 
-0.6038191871396532 1:28.111 2:-3.869 3:-9.9887 4:89.55 5:54.35 6:222.84 7:42.4 8:17.87 9:156.23 10:-47.15 11:-47.15 12:-47.15 13:-47.15 14:-36.48 15:156.23 16:19.56 17:-9.98 18:-10.67 
-0.5785959650651842 1:-24.612 2:4.7881 3:-11.894 4:42.86 5:22.32 6:67.68 7:-4.79 8:11.86 9:29.75 10:-47.65 11:-47.65 12:-47.65 13:-35.65 14:8.52 15:29.75 16:-9.71 17:10.67 18:-9.96 
-0.6014001697553241 1:-17.775 2:-2.1339 3:-18.752 4:91.44 5:167.13 6:103.17 7:33.26 8:94.36 9:-0.88 10:-58.18 11:-58.18 12:-58.18 13:-37.74 14:-25.75 15:-2.62 16:-22.95 17:-3.46 18:-22.3 
-2.386340874150811 1:0.64 2:6.2768 3:6.3968 4:20.97 5:23.27 6:4.16 7:11.22 8:20.27 9:8.77 10:-9.75 11:-9.75 12:-9.75 13:-3.31 14:-0.65 15:5.4 16:6.16 17:8.14 18:8.04 
-5.250599489760788 1:10.419 2:-1.0485 3:1.6712 4:9.5 5:7.98 6:6.24 7:14.38 8:2.29 9:3.77 10:4.88 11:4.88 12:4.88 13:5.28 14:-5.13 15:-0.44 16:12.47 17:2.01 18:2.01 
-3.219157190316655 1:3.7526 2:0.54698 3:-1.7997 4:6.3112 5:1.5224 6:4.9959 7:7.3663 8:1.3153 9:1.7918 10:1.0551 11:1.0551 12:1.0551 13:7.0806 14:0.59184 15:1.7918 16:7.1908 17:1.0296 18:0.80918 
-6.365371263977408 1:-2.9471 2:0.52743 3:-1.1532 4:10.567 5:3.5949 6:5.5765 7:-0.23061 8:1.1806 9:2.5622 10:-10.798 11:-10.798 12:-10.798 13:-10.297 14:-2.2949 15:2.5622 16:-0.37245 17:0.9949 18:-1.1214 
-0.7370809632898094 1:-2.2549 2:0.0265 3:-1.7402 4:8.5541 5:6.0367 6:8.8122 7:1.7786 8:4.4888 9:1.5653 10:-6.7755 11:-6.7755 12:-6.7755 13:1.7786 14:4.4888 15:-7.2469 16:-0.53163 17:-0.13061 18:-3.6316 
-8 1:-7.7349 2:-4.9474 3:-2.647 4:16.209 5:11.504 6:13.98 7:0.19286 8:2.0755 9:3.6673 10:-16.016 11:-16.016 12:-16.016 13:-7.5112 14:-3.2194 15:-5.9622 16:-1.001 17:-2.3398 18:-5.6949 
-6.432855953603481 1:-2.2989 2:0.14453 3:1.2922 4:12.246 5:6.9653 6:7.9459 7:3.0908 8:3.8316 9:6.0796 10:-9.1551 11:-9.1551 12:-9.1551 13:3.0908 14:-3.1337 15:0.85612 16:-0.72143 17:-0.16327 18:0.16327 
-3.060447030236923 1:2.8171 2:1.824 3:-0.30612 4:7.7429 5:11.439 6:9.6061 7:8.3051 8:7.3214 9:5.5245 10:0.56224 11:0.56224 12:0.56224 13:5.8041 14:-4.1173 15:5.5245 16:2.7449 17:1.4622 18:-2.498 
-8 1:2.6237 2:2.1239 3:-0.81063 4:6.8429 5:18.743 6:7.2724 7:7.1235 8:7.1122 9:2.9224 10:0.28061 11:0.28061 12:0.28061 13:6.6102 14:-11.631 15:-3.4541 16:1.3878 17:0.2398 18:-0.87959 
-2.692123829035634 1:4.3832 2:3.5354 3:-0.65951 4:12.54 5:22.862 6:9.8959 7:10.331 8:12.99 9:4.348 10:-2.2092 11:-2.2092 12:-2.2092 13:5.0949 14:10.69 15:-1.0867 16:1.8214 17:1.5673 18:-2.3357 
-2.410163419029017 1:3.7133 2:2.3464 3:-1.6253 4:8.6378 5:7.249 6:9.1724 7:9.151 8:7.0867 9:2.8929 10:0.51327 11:0.51327 12:0.51327 13:6.2602 14:2.9673 15:1.2582 16:2.3888 17:0.29898 18:-1.4306 
-0.4161863699113134 1:-22.628 2:6.6828 3:-9.7274 4:76.98 5:15.55 6:43.08 7:2.87 8:11.13 9:6.91 10:-74.11 11:-74.11 12:-74.11 13:-74.11 14:-4.42 15:-3.1 16:-30.21 17:-0.44 18:-34.37 
-0.3824512210220205 1:-25.388 2:1.8788 3:-9.74 4:68.94 5:25.05 6:31.01 7:-4.11 8:10.53 9:6.91 10:-73.05 11:-73.05 12:-73.05 13:-54.81 14:-3.81 15:-3.85 16:-6.18 17:5.19 18:-19.84 
-0.6023048359079248 1:41.573 2:35.165 3:3.4467 4:85.7 5:85.4 6:67.22 7:104.11 8:99.63 9:30.59 10:18.41 11:18.41 12:18.41 13:70.14 14:52.36 15:16.89 16:36.05 17:16.36 18:11.45 
-0.602178111088166 1:-26.57 2:0.70194 3:-6.2926 4:81.81 5:81.84 6:136.36 7:20.67 8:57.97 9:56.54 10:-61.14 11:-61.14 12:-61.14 13:-47.42 14:23.01 15:-7.52 16:-13.29 17:-1.87 18:-30.19 
-0.596385570472927 1:-13.026 2:-20.9 3:-8.3738 4:47.12 5:66.73 6:74.23 7:2.6 8:9.08 9:37.7 10:-44.52 11:-44.52 12:-44.52 13:-8.67 14:-52.59 15:15.44 16:2.16 17:-20.48 18:-34.06 
-0.6001777595295169 1:-27.347 2:3.0631 3:-12.798 4:114.28 5:97.69 6:78.21 7:26.82 8:60.85 9:19.37 10:-87.46 11:-87.46 12:-87.46 13:-22.76 14:-36.84 15:-34.62 16:-4.71 17:6.28 18:-19.67 
-0.5260491357543208 1:15.189 2:5.7862 3:1.4667 4:14.56 5:44.91 6:45.99 7:22.6 8:28.03 9:32.49 10:8.04 11:8.04 12:8.04 13:20.07 14:28.03 15:21.26 16:17.39 17:1.95 18:-12.2 
-0.6308727969557222 1:2.0639 2:-4.9467 3:7.9983 4:47.85 5:73.28 6:9.73 7:18.62 8:49.26 9:13.46 10:-29.23 11:-29.23 12:-29.23 13:-29.23 14:49.26 15:12.77 16:1.05 17:-7.01 18:8.6 
