svm_type c_svc
kernel_type rbf
gamma 0.000488
nr_class 3
total_sv 96
rho -0.0918746 -0.396585 -0.327846
label 1 2 3
probA -2.45053 -2.69509 -3.18837
probB -0.064403 -0.146136 0.110797
nr_sv 36 41 19
SV
0.7766392991646883 0.5150786722967099 1:30.759 2:0.62481 3:-3.3335 4:93.89 5:101.6 6:50.79 7:78.99 8:29.83 9:22.09 10:-14.9 11:-14.9 12:-14.9 13:78.99 14:20.06 15:11.97 16:7.49 17:-3.42 18:-21.59 
0.7820485146809668 0.519047596844598 1:37.091 2:1.0067 3:-15.427 4:105.09 5:84.32 6:90.24 7:89.84 8:36.23 9:19.79 10:-15.25 11:-15.25 12:-15.25 13:82.19 14:36.23 15:-16.07 16:18.12 17:6.64 18:-33.41 
0.9076331524402146 0.602907158640736 1:-34.513 2:10.437 3:-1.4781 4:113.89 5:45.54 6:109.58 7:-3.21 8:36.9 9:70.79 10:-117.1 11:-117.1 12:-117.1 13:-40.75 14:-5.38 15:24.42 16:-3.31 17:6.76 18:-9.61 
0.8653730705100871 0.6135962017566217 1:17.013 2:-2.821 3:2.9492 4:60.39 5:29.65 6:60.31 7:60.56 8:20.07 9:20.4 10:0.17 11:0.17 12:0.17 13:54.49 14:10.76 15:16.55 16:2.12 17:0.03 18:11.36 
0.9084370471708491 0.603699931091482 1:28.111 2:-3.869 3:-9.9887 4:89.55 5:54.35 6:222.84 7:42.4 8:17.87 9:156.23 10:-47.15 11:-47.15 12:-47.15 13:-47.15 14:-36.48 15:156.23 16:19.56 17:-9.98 18:-10.67 
0.9414735587329958 0.5788630778353255 1:-24.612 2:4.7881 3:-11.894 4:42.86 5:22.32 6:67.68 7:-4.79 8:11.86 9:29.75 10:-47.65 11:-47.65 12:-47.65 13:-35.65 14:8.52 15:29.75 16:-9.71 17:10.67 18:-9.96 
0.9339589634825443 0.6017266540280722 1:-17.775 2:-2.1339 3:-18.752 4:91.44 5:167.13 6:103.17 7:33.26 8:94.36 9:-0.88 10:-58.18 11:-58.18 12:-58.18 13:-37.74 14:-25.75 15:-2.62 16:-22.95 17:-3.46 18:-22.3 
8 0 1:2.1714 2:0.89069 3:-0.09335 4:5.65 5:13.687 6:11.554 7:6.3204 8:12.92 9:4.1286 10:0.67041 11:0.67041 12:0.67041 13:5.3041 14:12.92 15:-2.0969 16:1.6806 17:0.30408 18:0.76735 
2.172546455652733 2.385674271651881 1:0.64 2:6.2768 3:6.3968 4:20.97 5:23.27 6:4.16 7:11.22 8:20.27 9:8.77 10:-9.75 11:-9.75 12:-9.75 13:-3.31 14:-0.65 15:5.4 16:6.16 17:8.14 18:8.04 
3.038050238870993 0 1:-9.6074 2:0.7671 3:3.0542 4:1.05 5:0.84 6:1.11 7:-8.98 8:1.16 9:3.6 10:-10.03 11:-10.03 12:-10.03 13:-8.98 14:1.09 15:3.6 16:-9.65 17:0.68 18:2.85 
2.386116502563817 0 1:0.24091 2:-3.6236 3:8.9264 4:4.8 5:6.25 6:9.02 7:3.6 8:0.03 9:14.63 10:-1.2 11:-1.2 12:-1.2 13:3.6 14:-5.23 15:14.63 16:3.6 17:-5.23 18:14.63 
0 5.25696686242843 1:10.419 2:-1.0485 3:1.6712 4:9.5 5:7.98 6:6.24 7:14.38 8:2.29 9:3.77 10:4.88 11:4.88 12:4.88 13:5.28 14:-5.13 15:-0.44 16:12.47 17:2.01 18:2.01 
8 0 1:-3.998 2:-0.85403 3:-1.1956 4:4.8745 5:6.7408 6:8.4173 7:-1.4908 8:3.3724 9:1.9173 10:-6.3653 11:-6.3653 12:-6.3653 13:-6.3653 14:0.28061 15:-2.0408 16:-3.6143 17:-2.1929 18:-2.9969 
8 0 1:-2.9893 2:0.23531 3:-1.2783 4:5.0265 5:2.5714 6:4.6806 7:-0.53878 8:1.3153 9:1.8153 10:-5.5653 11:-5.5653 12:-5.5653 13:-4.2929 14:-0.21633 15:1.4306 16:-2.502 17:0.30102 18:-2.7469 
8 3.20253451645087 1:3.7526 2:0.54698 3:-1.7997 4:6.3112 5:1.5224 6:4.9959 7:7.3663 8:1.3153 9:1.7918 10:1.0551 11:1.0551 12:1.0551 13:7.0806 14:0.59184 15:1.7918 16:7.1908 17:1.0296 18:0.80918 
8 0 1:2.6744 2:0.63238 3:-0.21931 4:6.4939 5:5.5357 6:6.6286 7:6.751 8:4.4316 9:2.4939 10:0.25714 11:0.25714 12:0.25714 13:6.5633 14:1.0439 15:1.8551 16:3.7694 17:-0.17143 18:1.0459 
8 0 1:-2.9743 2:-0.041095 3:-1.5493 4:7.4337 5:4.7735 6:5.002 7:-0.44898 8:1.4796 9:1.0041 10:-7.8827 11:-7.8827 12:-7.8827 13:-6.8694 14:-3.2939 15:0.5449 16:-7.8827 17:-2.3184 18:0.94592 
2.98127912462233 6.364013755356806 1:-2.9471 2:0.52743 3:-1.1532 4:10.567 5:3.5949 6:5.5765 7:-0.23061 8:1.1806 9:2.5622 10:-10.798 11:-10.798 12:-10.798 13:-10.297 14:-2.2949 15:2.5622 16:-0.37245 17:0.9949 18:-1.1214 
8 0 1:-4.7332 2:-2.3617 3:-1.6444 4:5.3122 5:2.9673 6:6.1378 7:-1.6633 8:-1.1122 9:1.4092 10:-6.9755 11:-6.9755 12:-6.9755 13:-3.7939 14:-2.301 15:-0.77959 16:-3.249 17:-2.2612 18:-4.6857 
8 0.726581601643631 1:-2.2549 2:0.0265 3:-1.7402 4:8.5541 5:6.0367 6:8.8122 7:1.7786 8:4.4888 9:1.5653 10:-6.7755 11:-6.7755 12:-6.7755 13:1.7786 14:4.4888 15:-7.2469 16:-0.53163 17:-0.13061 18:-3.6316 
0 8 1:-7.7349 2:-4.9474 3:-2.647 4:16.209 5:11.504 6:13.98 7:0.19286 8:2.0755 9:3.6673 10:-16.016 11:-16.016 12:-16.016 13:-7.5112 14:-3.2194 15:-5.9622 16:-1.001 17:-2.3398 18:-5.6949 
8 6.444692376939939 1:-2.2989 2:0.14453 3:1.2922 4:12.246 5:6.9653 6:7.9459 7:3.0908 8:3.8316 9:6.0796 10:-9.1551 11:-9.1551 12:-9.1551 13:3.0908 14:-3.1337 15:0.85612 16:-0.72143 17:-0.16327 18:0.16327 
8 3.038289372625036 1:2.8171 2:1.824 3:-0.30612 4:7.7429 5:11.439 6:9.6061 7:8.3051 8:7.3214 9:5.5245 10:0.56224 11:0.56224 12:0.56224 13:5.8041 14:-4.1173 15:5.5245 16:2.7449 17:1.4622 18:-2.498 
8 8 1:2.6237 2:2.1239 3:-0.81063 4:6.8429 5:18.743 6:7.2724 7:7.1235 8:7.1122 9:2.9224 10:0.28061 11:0.28061 12:0.28061 13:6.6102 14:-11.631 15:-3.4541 16:1.3878 17:0.2398 18:-0.87959 
8 2.686684173759753 1:4.3832 2:3.5354 3:-0.65951 4:12.54 5:22.862 6:9.8959 7:10.331 8:12.99 9:4.348 10:-2.2092 11:-2.2092 12:-2.2092 13:5.0949 14:10.69 15:-1.0867 16:1.8214 17:1.5673 18:-2.3357 
8 0 1:2.6089 2:1.2292 3:-0.65124 4:5.3592 5:3.9388 6:7.8663 7:6.2776 8:3.8378 9:3.0959 10:0.91837 11:0.91837 12:0.91837 13:4.2908 14:0.86122 15:2.2327 16:1.5122 17:0.87143 18:-1.9061 
8 2.447903984741994 1:3.7133 2:2.3464 3:-1.6253 4:8.6378 5:7.249 6:9.1724 7:9.151 8:7.0867 9:2.8929 10:0.51327 11:0.51327 12:0.51327 13:6.2602 14:2.9673 15:1.2582 16:2.3888 17:0.29898 18:-1.4306 
8 0 1:3.1116 2:1.1426 3:-1.1892 4:4.2469 5:8.6306 6:7.2755 7:5.6306 8:4.052 9:2.549 10:1.3837 11:1.3837 12:1.3837 13:5.6306 14:-4.5786 15:0.42959 16:1.7378 17:0.39082 18:-1.7571 
0.6243598026384895 0.416935259146663 1:-22.628 2:6.6828 3:-9.7274 4:76.98 5:15.55 6:43.08 7:2.87 8:11.13 9:6.91 10:-74.11 11:-74.11 12:-74.11 13:-74.11 14:-4.42 15:-3.1 16:-30.21 17:-0.44 18:-34.37 
0.581540311773597 0.3816829236762961 1:-25.388 2:1.8788 3:-9.74 4:68.94 5:25.05 6:31.01 7:-4.11 8:10.53 9:6.91 10:-73.05 11:-73.05 12:-73.05 13:-54.81 14:-3.81 15:-3.85 16:-6.18 17:5.19 18:-19.84 
0.9112147340586748 0.6023739793193542 1:41.573 2:35.165 3:3.4467 4:85.7 5:85.4 6:67.22 7:104.11 8:99.63 9:30.59 10:18.41 11:18.41 12:18.41 13:70.14 14:52.36 15:16.89 16:36.05 17:16.36 18:11.45 
0.9101407732263743 0.6018837557544658 1:-26.57 2:0.70194 3:-6.2926 4:81.81 5:81.84 6:136.36 7:20.67 8:57.97 9:56.54 10:-61.14 11:-61.14 12:-61.14 13:-47.42 14:23.01 15:-7.52 16:-13.29 17:-1.87 18:-30.19 
0.9033765525109777 0.5964139944073983 1:-13.026 2:-20.9 3:-8.3738 4:47.12 5:66.73 6:74.23 7:2.6 8:9.08 9:37.7 10:-44.52 11:-44.52 12:-44.52 13:-8.67 14:-52.59 15:15.44 16:2.16 17:-20.48 18:-34.06 
0.9072333122578895 0.6000593550901009 1:-27.347 2:3.0631 3:-12.798 4:114.28 5:97.69 6:78.21 7:26.82 8:60.85 9:19.37 10:-87.46 11:-87.46 12:-87.46 13:-22.76 14:-36.84 15:-34.62 16:-4.71 17:6.28 18:-19.67 
0.3448422742085654 0.5267742972605618 1:15.189 2:5.7862 3:1.4667 4:14.56 5:44.91 6:45.99 7:22.6 8:28.03 9:32.49 10:8.04 11:8.04 12:8.04 13:20.07 14:28.03 15:21.26 16:17.39 17:1.95 18:-12.2 
1.021561110644632 0.6312515205876722 1:2.0639 2:-4.9467 3:7.9983 4:47.85 5:73.28 6:9.73 7:18.62 8:49.26 9:13.46 10:-29.23 11:-29.23 12:-29.23 13:-29.23 14:49.26 15:12.77 16:1.05 17:-7.01 18:8.6 
-1.091518271574301 0.681484047476528 1:17.854 2:-15.13 3:-11.641 4:129.74 5:136.66 6:95.94 7:52.95 8:69.11 9:51.17 10:-76.79 11:-76.79 12:-76.79 13:-76.79 14:50.27 15:51.17 16:11.68 17:9.13 18:-7.43 
-1.097662324611765 0.6712188074674529 1:17.398 2:-6.5881 3:-7.4448 4:63.27 5:127.72 6:66.57 7:70.18 8:74.57 9:5.95 10:6.91 11:6.91 12:6.91 13:27.74 14:74.57 15:-0.42 16:10.97 17:11.64 18:-8.43 
-0.893933821820032 0.5384412639301797 1:24.119 2:-19.996 3:-14.343 4:46.5 5:81.17 6:59.08 7:55.37 8:14.04 9:15.36 10:8.87 11:8.87 12:8.87 13:35.88 14:-57.21 15:-41.78 16:9.52 17:13.52 18:-13.29 
-1.124858932765967 0.6854437898906223 1:19.789 2:-9.3829 3:-3.5543 4:20.65 5:44.9 6:82.59 7:27.45 8:12.68 9:57.36 10:6.8 11:6.8 12:6.8 13:13.96 14:-8.35 15:57.36 16:7.51 17:11.7 18:-10.38 
-0.84408604929767 0.509710001864579 1:20.684 2:-15.575 3:-12.201 4:28.78 5:94.64 6:63.26 7:41.55 8:17.56 9:20.73 10:12.77 11:12.77 12:12.77 13:34.04 14:-75.79 15:20.73 16:16.19 17:17.49 18:2.31 
-1.095541617375881 0.6710390278980768 1:-18.839 2:22.074 3:-14.874 4:68.69 5:121.83 6:50.86 7:-8.27 8:71.65 9:15.44 10:-76.96 11:-76.96 12:-76.96 13:-76.96 14:-50.18 15:15.44 16:-8.92 17:-12.49 18:-10.92 
-0.9875371882730697 0.6105439134346287 1:-6.3471 2:-5.8564 3:-31.078 4:10.65 5:38.29 6:42.38 7:-2.58 8:22.93 9:-8.89 10:-13.23 11:-13.23 12:-13.23 13:-8.85 14:22.93 15:-51.27 16:-3.96 17:-13.66 18:-32.85 
-0.8379642415158548 0.5176243309183314 1:-14.491 2:12.086 3:-8.6777 4:44.46 5:109.01 6:59.69 7:-6.62 8:97.77 9:10.59 10:-51.08 11:-51.08 12:-51.08 13:-50.83 14:97.77 15:10.59 16:-11.28 17:-11.07 18:-5.3 
-0.9159128167970134 0.5036172426949476 1:-12.171 2:5.5526 3:-13.112 4:41.09 5:94.09 6:60.2 7:16.11 8:44.43 9:20.98 10:-24.98 11:-24.98 12:-24.98 13:-5.76 14:40.77 15:-16.91 16:-9.58 17:-10.92 18:-16.53 
-0.1834796350646349 0 1:1.9626 2:-1.5882 3:-2.7578 4:6.0837 5:8.5612 6:8.449 7:4.2459 8:3.6969 9:2.2306 10:-1.8378 11:-1.8378 12:-1.8378 13:-1.149 14:3.6969 15:2.2306 16:2.5918 17:-1.9235 18:-5.9061 
-8 0 1:2.1056 2:-0.38335 3:-1.8151 4:3.1714 5:8.5112 6:5.6673 7:4.2816 8:2.0092 9:1.0163 10:1.1102 11:1.1102 12:1.1102 13:4.2816 14:-6.502 15:-2.4082 16:2.8327 17:-3.4878 18:-4.5214 
-7.480357314140373 5.755566915069219 1:1.8699 2:-1.8337 3:-1.3391 4:9.7388 5:15.896 6:7.4388 7:5.0061 8:5.5286 9:3.4816 10:-4.7327 11:-4.7327 12:-4.7327 13:5.0061 14:5.5286 15:1.2765 16:2.9327 17:-4.7214 18:-2.9755 
-8 0 1:-1.1511 2:0.63673 3:-0.60856 4:6.5449 5:9.2745 6:6.2888 7:1.7184 8:7.5367 9:3.3173 10:-4.8265 11:-4.8265 12:-4.8265 13:-1.1276 14:1.2582 15:0.33776 16:-0.54286 17:-0.65102 18:-2.5122 
-6.048530139077846 0 1:1.9633 2:-1.1921 3:-1.9353 4:3.6704 5:9.6082 6:5.1255 7:4.6551 8:1.5245 9:0.13061 10:0.98469 11:0.98469 12:0.98469 13:4.6551 14:-8.0837 15:-0.81633 16:1.3347 17:1.5092 18:-0.6 
-0.4490633357349722 0 1:2.4159 2:-3.7952 3:-2.9837 4:4.3306 5:15.128 6:14.467 7:5.2173 8:1.702 9:2.2561 10:0.88673 11:0.88673 12:0.88673 13:5.2173 14:0.25 15:2.2561 16:1.0908 17:0.47653 18:-3.3663 
-0 7.477164173703157 1:2.4621 2:-3.2224 3:-4.2991 4:4.702 5:15.47 6:5.7949 7:5.3959 8:1.5796 9:-1.2765 10:0.69388 11:0.69388 12:0.69388 13:5.3878 14:-13.891 15:-2.3827 16:1.2337 17:1.5796 18:-1.2765 
-1.937200608665747 0 1:-2.4394 2:2.4286 3:-0.80701 4:4.7531 5:11.047 6:8.85 7:-1.0143 8:8.5061 9:5.0867 10:-5.7673 11:-5.7673 12:-5.7673 13:-1.3898 14:6.2367 15:3.6714 16:-1.3602 17:0.4449 18:-3.0459 
-3.999408534400086 0 1:1.6291 2:1.3543 3:-2.1354 4:1.6449 5:5.1551 6:6.298 7:2.3714 8:3.0031 9:0.5898 10:0.72653 11:0.72653 12:0.72653 13:0.98265 14:-2.152 15:-5.7082 16:2.1949 17:2.8153 18:0.5898 
-8 0 1:2.2264 2:-1.8009 3:-2.1703 4:6.6214 5:10.639 6:7.5378 7:5.601 8:2.1367 9:2.2612 10:-1.0204 11:-1.0204 12:-1.0204 13:2.848 14:-0.32245 15:2.2612 16:1.9582 17:0.36531 18:-3.7102 
-8 0.8072013377714226 1:-1.6817 2:1.8598 3:-0.80174 4:10.995 5:8.5541 6:6.8888 7:6.8051 8:7.4051 9:3.1194 10:-4.1898 11:-4.1898 12:-4.1898 13:-2.3765 14:2.3378 15:1.7143 16:-1.2643 17:-0.95408 18:-1.6847 
-8 6.753338979560791 1:-2.0142 2:2.0687 3:-0.48291 4:9.0092 5:10.731 6:12.424 7:1.2112 8:7.6796 9:4.7214 10:-7.798 11:-7.798 12:-7.798 13:-1.5612 14:2.2673 15:0.87347 16:-1.0255 17:-0.09898 18:-1.302 
-8 5.975172183892343 1:-1.6438 2:1.3706 3:-0.54915 4:10.015 5:9.9449 6:11.186 7:6.5235 8:5.6031 9:7.3582 10:-3.4918 11:-3.4918 12:-3.4918 13:6.5235 14:-4.3418 15:7.3582 16:-1.6357 17:-1.6847 18:-0.4398 
-0.1908568534755104 0 1:-1.7077 2:1.3549 3:-0.5059 4:6.4582 5:18.162 6:8.1531 7:2.101 8:7.4724 9:4.2143 10:-4.3571 11:-4.3571 12:-4.3571 13:2.101 14:-10.69 15:1.1398 16:-1.0929 17:-1.1122 18:-0.13469 
-8 0 1:-1.1938 2:0.54173 3:-0.55228 4:1.8122 5:0.65102 6:1.4612 7:-0.44184 8:0.84796 9:0.13469 10:-2.2541 11:-2.2541 12:-2.2541 13:-0.6898 14:0.20306 15:0.13469 16:-2.248 17:0.58571 18:-1.0418 
-4.73550794103816 0 1:-1.0766 2:0.65912 3:-0.72437 4:2.2388 5:0.84082 6:0.63469 7:-0.036735 8:1.1786 9:-0.41429 10:-2.2755 11:-2.2755 12:-2.2755 13:-0.1051 14:0.43163 15:-1.0184 16:-0.55102 17:0.47041 18:-0.44184 
-8 0 1:-0.88434 2:0.13265 3:1.7523 4:3.8602 5:2.0133 6:1.451 7:0.98265 8:1.4327 9:2.2184 10:-2.8776 11:-2.8776 12:-2.8776 13:-2.4469 14:1.1163 15:1.0296 16:-2.8776 17:1.4327 18:1.5888 
-8 0 1:-0.03116 2:-0.45884 3:0.0015679 4:5.1735 5:4.2102 6:6.4418 7:0.65408 8:1.9276 9:2.0918 10:-4.5194 11:-4.5194 12:-4.5194 13:-4.5194 14:1.7592 15:-3.6776 16:-0.12245 17:1.4306 18:2.0286 
-8 3.286398596026591 1:-0.20783 2:2.2643 3:-2.1541 4:12.41 5:14.191 6:7.448 7:8.6684 8:7.902 9:0.43571 10:-3.7418 11:-3.7418 12:-3.7418 13:4.1663 14:1.8214 15:-3.051 16:-0.60714 17:0.62755 18:0.38265 
-4.569061205875858 0 1:0.75792 2:-0.17841 3:-0.44776 4:5.8071 5:12.705 6:6.8918 7:4.2418 8:9.9939 9:4.05 10:-1.5653 11:-1.5653 12:-1.5653 13:1.6735 14:9.9939 15:4.05 16:-0.015306 17:0.14592 18:0.044898 
-6.29977618584377 0 1:0.43417 2:-1.1102 3:-0.25623 4:5.4 5:18.308 6:13.781 7:4.2592 8:8.3398 9:8.4398 10:-1.1408 11:-1.1408 12:-1.1408 13:3.1469 14:6.852 15:-2.1408 16:-0.034694 17:-0.22449 18:0.45918 
-8 8 1:1.8327 2:-0.76394 3:-0.87748 4:8.9316 5:9.9684 6:7.3582 7:7.8041 8:2.0133 9:1.9878 10:-1.1276 11:-1.1276 12:-1.1276 13:2.4531 14:-5.0031 15:0.026531 16:0.40408 17:2.0133 18:-0.83265 
-1.091907159918248 0.7125848740436778 1:-21.828 2:16.427 3:-30.017 4:118.04 5:156.79 6:62.24 7:9.33 8:95.43 9:5.01 10:-108.71 11:-108.71 12:-108.71 13:-62.51 14:88.17 15:5.01 16:9.33 17:-0.4 18:-44.73 
-0.8363612630701868 0.502785977372967 1:-17.749 2:18.577 3:-11.159 4:51.26 5:87.8 6:64.1 7:-1.41 8:81.81 9:24.21 10:-52.67 11:-52.67 12:-52.67 13:-52.67 14:58.17 15:24.21 16:-6.34 17:-5.44 18:-9.04 
-1.069536504835433 0.6578032917467568 1:-17.576 2:18.186 3:-13.699 4:54.46 5:83.43 6:95.25 7:19.88 8:69.2 9:50 10:-34.58 11:-34.58 12:-34.58 13:19.88 14:52.69 15:50 16:-8.77 17:-14.23 18:-13.35 
-1.060088229372706 1.162752628006504 1:-15.576 2:3.1145 3:-14.066 4:28.17 5:43.87 6:40.72 7:-0.97 8:26.42 9:5.99 10:-29.14 11:-29.14 12:-29.14 13:-29.14 14:17.43 15:-2.33 16:-14.71 17:-13.68 18:-3.71 
-0.9546132777924065 0.6854045355896847 1:14.436 2:-8.2792 3:-8.568 4:29.07 5:67.95 6:38.82 7:34.08 8:12.1 9:2.5 10:5.01 11:5.01 12:5.01 13:24.02 14:-49.24 15:-0.74 16:11.95 17:6.95 18:-0.21 
-1.111025633809876 0.6704691835705523 1:-19.761 2:10.986 3:-24.93 4:49.47 5:182.51 6:61.55 7:-2.83 8:110.32 9:7.39 10:-52.3 11:-52.3 12:-52.3 13:-32.38 14:4.38 15:-6.89 16:-5.69 17:-6.89 18:-50.29 
-1.091477379147535 0.6720024055977866 1:-13.98 2:-10.536 3:-19.79 4:30.94 5:146.34 6:36.13 7:-3.33 8:41.04 9:3.16 10:-34.27 11:-34.27 12:-34.27 13:-34.27 14:-105.3 15:-12.93 16:-3.46 17:-20.5 18:-30.17 
-0.9734983664987846 0.6015239993213098 1:-14.023 2:16.92 3:-23.298 4:28.95 5:111.46 6:63.1 7:-0.61 8:87.73 9:6.22 10:-29.56 11:-29.56 12:-29.56 13:-26.44 14:80.51 15:-1.05 16:-8.5 17:22.72 18:-52.72 
-0.8354755343931188 0.4806407420055845 1:-19.51 2:8.0733 3:-31.728 4:33.49 5:73.83 6:41.13 7:-3.58 8:53.18 9:-5.67 10:-37.07 11:-37.07 12:-37.07 13:-34.29 14:53.18 15:-29.35 16:-13.5 17:-3.27 18:-37.41 
-1.091584433024612 0.6720782371912262 1:5.5926 2:2.1861 3:-2.2748 4:120.29 5:225.85 6:43.29 7:48.66 8:104.63 9:23.77 10:-71.63 11:-71.63 12:-71.63 13:20.23 14:65.06 15:2.1 16:-2.56 17:9.67 18:-6.24 
-0.5804550872387393 -0.5503383807737181 1:10.589 2:-6.7746 3:-11.864 4:109.68 5:111.52 6:78.09 7:94.28 8:8.75 9:31.48 10:-15.4 11:-15.4 12:-15.4 13:85.91 14:-102.77 15:31.48 16:-2.14 17:4.96 18:-20.19 
-1.242588814742931 -1.181663714339397 1:15.074 2:-10.168 3:-11.396 4:146.39 5:117.19 6:93.89 7:130.4 8:8.54 9:38.89 10:-15.99 11:-15.99 12:-15.99 13:115.43 14:-108.65 15:38.89 16:0.34 17:7.52 18:-20.57 
-0.3699682725094538 -0.3521883970662736 1:9.8071 2:-8.083 3:-7.7573 4:109.59 5:112.44 6:94.39 7:95.28 8:7.93 9:48.97 10:-14.31 11:-14.31 12:-14.31 13:86.83 14:-104.51 15:48.97 16:-1.53 17:5.05 18:-15.38 
-0 -0.869692927278751 1:-3.3452 2:2.9596 3:-2.2174 4:16.123 5:17.342 6:19.542 7:0.10714 8:16.016 9:10.997 10:-16.016 11:-16.016 12:-16.016 13:-16.016 14:16.016 15:10.997 16:-0.17551 17:-0.56429 18:-0.83265 
-5.985936189378368 -0 1:-2.6648 2:1.9388 3:-2.8313 4:16.023 5:11.053 6:8.4102 7:0.43367 8:10.299 9:1.0102 10:-15.59 11:-15.59 12:-15.59 13:-15.449 14:10.299 15:1.0102 16:-0.089796 17:-0.10306 18:-1.4602 
-7.695060463208344 -7.592804286479969 1:2.314 2:-1.5375 3:-1.7492 4:14.078 5:10.895 6:7.2194 7:13.435 8:1.3051 9:1.3959 10:-0.64286 11:-0.64286 12:-0.64286 13:13.435 14:-9.5898 15:0.17347 16:0.6449 17:0.30408 18:-1.5673 
-0.8560205419009006 -0.8410660247522442 1:-18.087 2:16.946 3:-17.012 4:126.58 5:133.4 6:86.1 7:15.61 8:121.53 9:24.85 10:-110.97 11:-110.97 12:-110.97 13:-110.97 14:121.53 15:24.85 16:4.02 17:-4.56 18:-24.19 
-0.5332634204829159 -0.5064405541927493 1:-14.844 2:13.713 3:-16.144 4:115.33 5:121.75 6:93.82 7:14.15 8:114.36 9:39.98 10:-101.18 11:-101.18 12:-101.18 13:-101.18 14:114.36 15:39.98 16:1.76 17:-4.36 18:-22.66 
-1.231317031760089 -1.175270412952248 1:-9.9187 2:10.01 3:-7.7534 4:111.33 5:109.95 6:120.51 7:14.58 8:101.68 9:62.94 10:-96.75 11:-96.75 12:-96.75 13:-79.59 14:101.68 15:62.94 16:3.6 17:-5.15 18:-18.87 
-1.167214063645128 -1.105142017975118 1:-17.096 2:13.979 3:-12.3 4:148.14 5:124.48 6:102.42 7:15.73 8:117.68 9:45.06 10:-132.41 11:-132.41 12:-132.41 13:-125.95 14:117.68 15:45.06 16:4.31 17:-2.16 18:-15.46 
-1.320769845975065 -1.255184737498993 1:15.649 2:-12.366 3:-7.0146 4:92.43 5:133.41 6:126.91 7:81.21 8:17.53 9:76.75 10:-11.22 11:-11.22 12:-11.22 13:66.42 14:-115.88 15:76.75 16:-1.78 17:9.27 18:-13.6 
-1.05504897631494 -1.007370855225512 1:15.559 2:-11.291 3:-11.643 4:88.24 5:90.81 6:78.58 7:74.26 8:10.11 9:38.66 10:-13.98 11:-13.98 12:-13.98 13:74.26 14:-80.7 15:38.66 16:-0.15 17:6.91 18:-16.84 
-0 -0.3452233534482606 1:4.1379 2:-3.5984 3:-1.6175 4:16.395 5:17.932 6:25.116 7:16.014 8:1.9173 9:13.554 10:-0.38061 11:-0.38061 12:-0.38061 13:16.014 14:-16.014 15:13.554 16:0.091837 17:0.99286 18:2.3296 
-0.7907374241835036 -0 1:4.5793 2:-3.2775 3:-1.7256 4:17.492 5:17.437 6:23.995 7:16.014 8:1.4224 9:16.014 10:-1.4776 11:-1.4776 12:-1.4776 13:0.18163 14:-5.4469 15:2.2571 16:6.7735 17:-1.5776 18:-7.8214 
-8 -8 1:-1.1308 2:1.0204 3:-0.89893 4:12.747 5:7.7837 6:6.9357 7:1.5327 8:7.3327 9:2.1184 10:-11.214 11:-11.214 12:-11.214 13:-11.214 14:7.3327 15:2.1184 16:1.5184 17:-0.45102 18:-0.12041 
-8 -8 1:-1.6131 2:1.2619 3:-0.75254 4:10.932 5:19.511 6:14.276 7:1.702 8:10.043 9:9.8765 10:-9.2296 11:-9.2296 12:-9.2296 13:-6.4143 14:-9.4684 15:-3.8643 16:1.6847 17:-0.76939 18:-0.005102 
-8 -7.114364603260003 1:2.7257 2:-1.258 3:-2.4402 4:12.047 5:9.1276 6:6.1357 7:10.397 8:0.81122 9:0.52551 10:-1.65 11:-1.65 12:-1.65 13:9.7888 14:-8.3163 15:0.14184 16:4.0041 17:-0.52551 18:-5.6102 
-2.117255161994018 -2.365260220801681 1:4.6152 2:-2.5663 3:-2.34 4:17.562 5:17.547 6:21.394 7:16.014 8:1.5327 9:13.789 10:-1.548 11:-1.548 12:-1.548 13:8.4908 14:1.5327 15:7.8184 16:5.4541 17:-0.61327 18:-7.5153 
-8 -8 1:3.5044 2:-1.4348 3:-3.4922 4:9.2469 5:7.1776 6:4.4439 7:8.9388 8:1.1469 9:-0.71327 10:-0.30816 11:-0.30816 12:-0.30816 13:8.9388 14:-6.0306 15:-0.71327 16:7.7357 17:-4.9969 18:-2.3378 
